function [y1] = NNFunc(xin)

x1=xin';
%NN8COPY3FCN neural network simulation function.
%
% Generated by Neural Network Toolbox function genFunction, 21-Jun-2017 00:47:59.
% 
% [y1] = NN8Copy3Fcn(x1) takes these arguments:
%   x = 18xQ matrix, input #1
% and returns:
%   y = 1xQ matrix, output #1
% where Q is the number of samples.

%#ok<*RPMT0>

% ===== NEURAL NETWORK CONSTANTS =====

% Input 1
x1_step1.keep = [1 2 3 4 5 6 7 9 10 11 12 13 14 15 16 17 18];
x1_step2.xoffset = [1;1;0;10;0;0;0;0;-112;1399;1399;1396;1396;1;1.3802;8.779;0];
x1_step2.gain = [0.181818181818182;0.0666666666666667;0.333333333333333;0.153846153846154;2;2;2;0.04;0.00211864406779661;0.000118392233469484;0.000118378218407813;0.000118385225523855;0.000118385225523855;4.3330372424551e-05;0.000333806370340743;0.000339140596024675;2];
x1_step2.ymin = -1;

% Layer 1
b1 = [1.6513052736081619;1.2270926570455485;0.37521090334606155;-0.48167773212206583;-0.32470949830099949;-0.2743633349097066;0.51802716260959758;-0.64321001681839063;1.3013358883739106;-1.5841366001973529];
IW1_1 = [-0.27284168856576074 0.053454281858002134 0.0088175139513417128 0.73519962856481513 0.17591727088523354 -0.74958330596020584 0.076302127103631601 -0.45729359375660622 0.13692407381737784 0.042818450979855732 -0.37457700917858583 -0.0031984611497622539 0.36220981734270291 -0.66334921506178846 0.38182342203567821 0.20613655637419562 0.27800135260797254;-0.39445016584312775 -0.34824126371583553 -0.6672484994038127 -0.017495865387596402 0.39259908223390932 0.45573367339698378 0.20724362559330453 -0.29797374173830604 -0.12292282420226973 0.29982923903178521 -0.080267212350780992 -0.53006532743497525 0.12128976755935382 0.47327250919021685 0.49649994810418946 -0.29844911396236889 -0.2047540669900961;-0.099510428508654172 0.25043565821807434 -0.24101491659017862 0.20250706586539927 -0.079091430536175636 0.76775552897260224 0.89295128526237266 -1.5879683062110614 0.074475421453323601 0.31342722613404256 0.1524444351990448 -0.53840157796532762 0.12737192987213936 -0.19413297021813317 0.41539654338462445 -0.024608002579507387 0.12610945576231739;0.50235350041118132 0.67573966799552387 0.29605318226581201 0.39002093453954317 -0.56637621080003486 -0.15717913411458218 -0.52162840556294876 0.13700417509144378 -0.77555772915195076 0.20644702793256878 0.24555705652825771 0.26340959157601679 0.33067510243503939 -0.22574473243912277 -0.29184748340994615 -0.010764171116104407 -0.053687639430545463;0.33058478941368508 -0.46525763099303341 0.021687334416098682 -0.36788133275365636 0.1547680968180925 -0.44098808595901434 0.042896288742536155 -0.32188942466363163 0.43252438189823594 0.37331621731535547 -0.46667069604772993 0.33897937836276293 -0.5147297855838201 -0.11851480848047211 -0.16355043050576021 -0.65157959637426766 0.077267645600970103;0.090012688189057569 -0.22958075019468208 0.26884308887552477 -0.21457785923469572 0.047888746421108457 0.32586847198393937 0.69018290231948698 -1.6781000984487076 0.069928207611708926 0.46070929636029012 -0.62092364944752221 0.22139080136080713 -0.19187625302996952 0.15008568512188358 0.023137709291302284 0.034261053958811162 -0.12371002953489731;0.072804185498297577 0.090928821431078138 -0.31751453093937893 -0.37920322869164097 0.26969769272695021 0.019946470540758491 0.10694243397314639 0.29961941215022392 0.35637976902403434 0.50272545374735467 -0.3510464502650264 -0.62839525376277239 0.36866488053497048 -0.42971961048714169 -0.53434007694197228 0.52059458310153683 -0.21890155998715083;-0.18222142883490886 -0.044807929415551499 -0.14752835081168589 -0.2096056712473256 -0.043467975553893749 -0.72972040369377011 -0.21646142543145849 1.1393025070888663 0.1123196302501778 -0.34089782917822026 -0.029347792018335445 0.58718693617922868 -0.58765073044811966 -0.2651987919903861 -0.40518394068440472 -0.4557015872612496 -0.14574548821147024;-0.1050762074017501 0.38273511750083439 -0.093410620267305733 -0.43090288663738213 0.50867929463212391 0.10694461837379318 0.15293408148232973 -0.3849298539777839 0.17290272289425743 -0.55259816087513536 -0.42138159578524209 -0.28698561799315336 0.59295840200910277 -0.27001406130936784 0.36096675109711168 -0.32619868045042844 -0.51058275150283372;-0.31809302680572005 0.43517704221332298 -0.0593707140418799 0.3698309345079428 0.12493542531909781 -0.46997061104754717 0.23806577747062477 -0.98449701330071326 -0.21916819693563036 -0.20247720199529473 0.5891113079883652 -0.42833304636734659 0.30298561901921478 -0.040521447562698633 0.083338206323718314 0.47077820999846959 -0.097023903340403617];

% Layer 2
b2 = [-1.9192145101210401;1.6519419837595022;1.2225609361731091;-1.3148950782416804;-1.1552150037566251;-1.048895006283785;0.71868821310952835;-0.43380779901137229;0.36104744617607198;0.014283853432709444;0.11918758245721903;0.19744177652497674;0.59160251559372901;-0.71077342074729299;0.89478223010502789;-1.1158331840539175;1.3863571126928029;-1.4863405079316936;1.7599407079788674;1.9002580789613941];
LW2_1 = [0.53585916537796774 0.87413565946414262 -0.86970151427189601 0.63057192001322226 0.46736626960419442 0.81123527137126428 -0.57901498853671896 -0.23570440740723045 0.022878290189454534 0.17655292128667735;-0.50101824074927492 1.1073583112885026 -0.8418699736171783 0.42976581306976097 -0.47853296159062036 -0.17144745522999325 -0.17830198287703933 0.058595855999864464 0.7703505974048287 -0.66346841849064797;-0.72959441412798365 0.24231925745184796 0.7560632297062102 -0.80192483039984253 -0.17017897498005885 1.0658351168356945 0.3415756233328392 -1.143263353431236 0.10889172803181491 -0.60870066485942265;0.36889119313918495 0.64140707613170633 -0.54231314001428121 -0.3519071249697116 -0.21358572302563128 -0.95974839930928535 0.78454203229166708 0.35922717329110226 0.61027712891803521 -0.65712343681211138;0.19108409216778491 0.62416308894267314 1.0389952236606739 -0.39651119696253778 -0.36568920903233038 -0.59165752293405227 -0.2555670948123791 -0.37630728791605367 0.87570841263890786 -0.48643358218996485;0.68308219893415367 -0.64100990678018999 -0.39595324628691558 0.16344848991185612 0.24105387436381662 1.0416382786728635 0.9377802620325838 0.24060840012497506 -0.13130201163926999 0.37063783625601227;-0.77921037090427014 -0.49426215956170289 -0.5108369590207974 0.79039847959765253 0.8078001973391381 -0.48787623797943064 0.42530103231523064 0.12377655138011601 -0.57702808191221422 -0.56336611662417013;0.61577206144006291 -0.54588978604540384 -0.57265306368593261 -1.000168452132711 0.70848391272807365 -0.38624129651130762 0.098686445251887647 0.40407871128374878 -0.970135537234178 -0.44950202387627047;-0.57820270067283774 -0.51399626208949245 0.5741722519135033 0.75682701849606315 -0.37614779587743502 -1.0489763046392766 0.11332497980292279 0.17856730895778178 0.5080558660260962 -0.62689576358636157;-0.70383367390701013 0.19646288338767756 1.0153947289634118 0.71651021886942257 0.98512330421223016 1.0268779234801446 -0.10481629694163722 0.38785188915912777 -0.10897322335569931 1.0269157698082747;0.60644177018218648 -0.81498834615946325 0.43819141835246445 0.2163703587732522 0.33821986971214418 0.27467356458598807 0.80150931937660053 0.87333450505935895 0.82393005992141677 -0.11135975520287947;0.62489255408862432 -0.49478086516885694 1.0045355096568089 -0.82864204725032575 0.35460372574554233 1.0242872358429167 0.31383098483670796 -0.38236329885055531 -0.21820723874484552 0.59158185629814142;0.77255467142997447 0.90108141298780564 0.31766916368848869 -0.43569859910091296 -0.56048673264313842 0.55505901837098348 0.33099458789865177 -0.67148804985729627 -0.16796410617213614 -0.82943802524655386;-0.73561892833873388 0.78440012803886217 -0.47464581164510233 -0.075924848639536982 -0.47936069378479401 0.26492184929940105 -0.8921966927090057 -0.68604518501422074 0.60684522516891881 0.49992153696835429;0.69308137005616099 0.60604422185610807 -0.41701669342663022 -0.050501164023451027 -0.013535292871539081 -0.74355270467590806 -0.27902201578067581 -0.91984022084907968 0.65613945509113714 -0.79924752078430072;-0.043413277161653351 0.78243052209090735 -0.3238338163027546 -0.93714871505194464 0.21048866933375984 -0.42040466637803725 -0.033870895334953272 -0.44974520713551436 -0.66851542014643106 1.0574978607850016;0.54243065614705477 0.5743861761588982 0.22190458065953425 0.80920167529921683 0.6185841992464276 0.45890513389058363 0.34837200541330404 -0.7920184132110798 -0.50046971722120459 0.73165421788854912;-0.19816494711109589 -0.64792993625631823 0.63298454121049075 0.26181640689421676 -0.46668077548127479 0.31852163719727505 0.89989086737003787 -0.76908482970247172 0.019152536133816542 0.92487505571707884;0.29379192065144089 0.74033789811872175 -0.53068421406620514 -0.99389476461477055 0.074967648195794365 -0.55095588731982781 0.31986564805171458 0.73555152063826357 0.092329853873759152 0.66789265609020754;0.11200892206808327 -0.66865705287959143 1.1340265464568928 -0.14748390687387974 -0.31158920274662522 -0.99885935384947222 -0.055418938502961868 -0.010942459661756901 0.82194111688012039 0.069458473099470522];

% Layer 3
b3 = [1.6377054238355342;-1.6289355414501809;-1.5642347875647626;1.453139761532064;-1.4364959473130696;-1.4214238903544301;1.301181268605232;-1.1987460484690591;1.1443969156034135;1.0479416239285919;-1.017825759273806;-0.93491635826871022;0.88782252879646995;-0.75666330759432454;-0.77622730794320682;-0.67951384450391661;0.62417611419486352;-0.52380531553177889;0.46876462917520906;-0.41208116336177991;0.35092849902144102;0.24876157553643513;0.11153928022887634;0.10042763387678363;-0.050733890366998567;-0.023547408357255314;0.083831030211620097;-0.16779487368086884;-0.24745586246834128;0.33597884707622699;-0.40013072398917404;0.44732676781828012;0.52831562365177909;-0.60557464949334305;-0.67395263299526287;-0.7327291621873917;-0.78592961323657529;0.86118691683381443;0.9035836319502073;-1.0176818072798499;-1.0031681957479435;1.0528447062339585;-1.2168484558985881;1.2181817199816081;-1.3491286269285123;1.4867804152481876;-1.4947027364365579;1.5971766817456663;-1.5942775271733374;1.7240929164329042];
LW3_2 = [-0.021671611071425564 -0.3157774813701586 0.243609576861788 -0.337280855119092 0.50095394013907812 0.6228124254352585 0.25787070866800316 -0.044064854851710779 -0.69682336608795536 0.49013275956941144 0.17572578454569873 0.3705961960895614 -0.20719800983624242 -0.43655988555926578 -0.3557340250634512 -0.4384653781240534 0.45681899493601941 0.57332534996335605 0.1287797875683904 -0.1744525889275686;0.3642380329067198 0.41593161201210554 0.39790121744255491 -0.54287305330119828 0.30820773705070731 0.34208920205734572 -0.081854955716977956 -0.52270795600132702 0.1962293783876356 -0.30615130605916707 0.53786404322964165 0.52846506347778244 -0.47848089630758578 -0.30014514036712753 0.52917493309580566 -0.0019470795816171993 -0.10622428956241184 0.27236447105880529 -0.24395783598036477 -0.53381134324662205;0.47274894992056049 0.50685001006882413 0.43697362485411145 -0.38806112953915711 0.061036866482090689 -0.01671343202187427 -0.039991568754497581 0.47193037787534226 -0.44361551377565939 0.55935364380278563 0.57100194952133643 0.39523846331812296 -0.4569325667122886 0.22213995425816666 -0.13396006687210021 0.5163688620457153 0.22233585457928165 0.27323280003423506 -0.19865976331919036 -0.38538146752686592;-0.18857627202736416 -0.41711905027202101 0.60117739992966601 -0.15613557394449945 0.32624264342634984 -0.047953213239391161 0.34525063900549385 0.4658220503401127 0.40931060682220605 -0.049956256871549587 -0.49017234637848722 0.54661392882245774 -0.37996411547949344 -0.3092921591774766 -0.44564378655169806 0.31186968307004442 -0.26426783097393319 -0.39339500870514266 -0.6591765822465474 0.28664681288713062;0.13774963332650936 -0.50020769568412504 0.47587565536914728 0.43641938435324784 0.33399459259576453 -0.29987572627150294 0.14357223379433426 0.49434979099249765 -0.081671733988262177 -0.60630814535824207 -0.71058806996616819 0.44924349513165901 -0.29000148844687473 -0.19577215428860176 0.021206950983161093 -0.59423183785657219 0.133330695746815 0.080562571839774957 -0.2808774762332894 -0.27170981050827903;0.29683748886721412 0.068975522417218896 0.44345537538039403 0.12603616785549948 -0.4924482450553524 -0.0464988457660079 0.073247343165826873 -0.3513243604507878 -0.5924315026831487 0.43715662630913704 0.47888593647514371 0.47447228260085489 0.34619294272715156 -0.42783089607116581 0.37718136685551895 0.11043865911918817 0.56969825459680867 0.083537581650108078 0.24525777001978821 0.47131810699882237;-0.081550794996606613 0.077068852805817101 -0.17498943108061837 -0.19174035976387452 -0.041011319247519232 -0.061242083133886918 0.33934828462482908 -0.31904630599659073 -0.5359712610368732 0.25788656307091989 0.11526165876314384 0.029658724214284688 -0.70006167924038865 0.48269865024391445 -0.31011688986072988 -0.7369178117525943 0.38268769392419372 -0.34437215301132257 -0.25854195305607597 0.68612278923359971;0.40547960169607583 0.14284348414670772 0.04889622296609436 0.16674852597361703 -0.42969320140891443 -0.45464316475004907 0.61476449150368906 0.35755045399413488 -0.35282004050910004 0.63734841442380297 0.10841104795698461 0.53200040105959356 -0.14472343435189017 -0.59866257576991455 0.054149127814999275 -0.52954598474299885 -0.29099637270370349 0.0035258955064344302 -0.54515795957975477 -0.0087085266802437115;-0.41652869539136256 0.53996098505511969 -0.61291551575588299 -0.039777920167226005 -0.61577616487284781 0.37091118317846949 -0.54215628090402312 -0.49596130725190307 -0.32210309176830659 0.0060271872076193564 -0.42843064605169195 -0.1526082846531093 0.33573057045968568 -0.43507342404163929 -0.31093602964896661 -0.0080423186761454761 -0.15933540085347025 -0.14897259264389265 0.081423721279057171 0.48346230954471742;-0.077952597873570617 0.2326366305298721 0.48935840545268827 0.55522307808436122 0.0044602337539885817 -0.61800660111466854 -0.26908590830120077 0.017417951327154332 0.19125266719208606 -0.022294991608780693 0.39678582882917857 0.44338405267561437 0.57279694531100933 0.6925200178426566 -0.48331757749496979 -0.0540778859414556 0.046822390857441144 -0.5605513299794842 -0.3477471715068709 -0.098167420159046295;0.54547650072509657 -0.11501454326474113 0.19687028511996368 -0.5142414429583787 -0.56426773632507732 -0.19113554542253161 -0.15491207719739714 -0.43700519251512204 0.010329199532943957 -0.59732809058122027 0.26364735156570873 0.25389081576969053 -0.61909387976523633 -0.06581438216678677 0.023376908647243167 -0.19153755779879139 -0.50260021831520818 0.35590041335053046 -0.54689516198556642 0.27096624917902895;0.45443869181168062 0.35657775690030907 0.10509663562361536 0.1832765621506573 -0.12783788640129298 -0.57915402651855752 0.23698514460770678 0.29368648376326806 0.054618181325996461 -0.56827758216564817 -0.68028491017581783 -0.49805570904083762 -0.37757714952920701 -0.13942551845952111 -0.35670632175622147 -0.48189231406679184 0.4385192787495974 -0.053798722858588541 0.57029869643318365 0.4609654489408293;-0.28891586946691 -0.18109193979238153 0.75131169827914634 -0.066656145490745222 -0.48507528676115569 -0.063436079638462955 -0.55543962365546207 -0.09261712952224456 -0.26708925325201605 0.34088747779672041 -0.5834630037651567 -0.3137661543254906 -0.65843186358792571 0.16413986210619985 -0.079290263797248281 0.26901246835569814 0.59493325828466481 -0.15513818928428036 0.046489364770336078 -0.2246044200769263;0.47619192347504968 -0.10206679179468242 -0.45106970458226192 0.019706427434855862 -0.53373302982147175 0.43674113952522586 0.052834523110377986 0.28061815136481033 -0.16964561205502413 0.52669171714617136 -0.47491634911098757 0.63981237391603141 0.54567306482422195 0.46183428745866684 0.21710663920771556 -0.0033898483626264293 0.59580842949585366 -0.0055109577621860351 -0.33217190248678374 0.17892502296614105;0.094888127919609877 0.23999349145014728 0.24924920394160885 0.2396472783490676 -0.16523116162881005 0.36171071300151592 0.39819898091715228 0.58474425841234023 0.48940846703333513 -0.44769017769755354 0.49131002251997707 -0.65020607578784306 -0.36269542815789962 0.36960665782745694 0.08208656746981724 -0.36074260200191149 -0.28951387512031906 -0.040947491593147638 -0.5126609216397251 0.35363773440368629;0.22623667879490539 -0.31778628474958293 -0.33944357891044402 0.16927694314783948 0.56043040137018374 0.1694499722351237 -0.39624405788457651 0.44237863860119481 0.49093466100999039 -0.080194231455373965 -0.48153111677352961 0.4098764944070647 -0.47629137360302876 -0.16231511221692235 -0.50813540065710971 -0.52414275385754361 0.46358017281520147 -0.3923325648222481 -0.25450380388673222 -0.14127286950719586;-0.15004984588395756 -0.14574157454786502 -0.12776279281761269 -0.08064675405133305 0.42248421712390938 -0.456306731446803 -0.33819288761461175 -0.39405601520260897 0.027803357681478555 -0.65129326563763401 -0.14065134280353139 0.10406670096876759 -0.35053552805888072 0.59750056605881507 0.51493926648242117 -0.15598259843749099 0.7023581428460548 -0.063386343266259401 -0.3818487130780851 -0.36190946148917508;0.15115920087895965 0.19744607560099806 -0.41411162029595633 -0.41704540541383334 0.080999392282738156 -0.23766787343963194 0.60227728579033657 0.51458634227072453 -0.5690864687620748 0.20226689992542571 0.011156967465011446 0.31168518979144488 -0.30489959727796467 -0.36413217555652261 0.44142960289355621 -0.56515837756535503 0.32712794377945748 0.5044153650767117 -0.15638681613571126 0.49411271995949585;-0.21305247016857809 0.46024204131575558 -0.42782491422638691 -0.41628883966148883 -0.42758995714262327 0.3760607506075983 -0.15479068650585601 0.23850221977063177 -0.58367351935044498 -0.15654399686588222 -0.44745060211813975 -0.36065504700666551 0.29987500838725112 0.40140841031347441 -0.2438730383473062 0.49992658401439866 0.56449056914238505 0.21451446836666108 0.51734790698698729 0.16787467785443808;0.59693960185157646 -0.0099110313414114241 -0.55489151246343671 -0.40894266393990902 0.053587783200613706 0.039697921962828495 0.30450812896032964 -0.52282114076771558 -0.51578570280821601 0.35168997584814393 0.071814618527875643 0.59633392127546825 -0.21506074199018407 -0.34547548731682831 0.11731786273172323 -0.040587442910751337 -0.069261949893164698 0.58007915740118721 0.61998207730830057 0.054065725025086719;-0.31446853740393965 0.091722534238620188 -0.47541026166184458 -0.29061469997013556 0.3981974014829962 0.57109230304758751 0.32619004194127654 -0.45039097080017221 0.13972520694733764 0.45082464948309642 -0.49883882718949041 0.48157730780360902 -0.55522344218454978 0.21663857653173454 -0.17925557005447537 0.15441233088324613 0.36993262920113301 0.41226997953427114 0.47676896739216679 0.0054847830087085478;-0.7464539318699478 0.39305340182649223 0.53479257847998185 0.074716911589917001 -0.42758494697623162 -0.24624615565238495 -0.52108620930208349 -0.26042994302450795 0.13622509813961303 0.031488715851858168 0.28103806955229449 -0.26029710154301017 0.44551040704721628 0.46245149004519798 -0.054942301271147846 -0.43111322380282346 0.036393041049825103 -0.19332227470086727 0.30495302637330091 0.65257548369496032;-0.39313606996588174 -0.024444546433350017 0.24202185998400758 -0.34646337019076123 0.52639845960045828 0.17918485978298404 0.42556214963023942 0.1642167022852421 -0.38232810101991388 0.70051520761377084 -0.37681880182536776 -0.28837732423440393 -0.38932560613385053 -0.48095482571828879 -0.048952304161673878 -0.24522985718727494 -0.49683210055557564 -0.56830616297441827 -0.39775050595273798 -0.25333775202967279;-0.15450794181710653 0.27582693587505852 -0.15206730589599629 0.60903200717958583 -0.52416318825473152 -0.031806332034666776 -0.31272986184200136 0.0024135973724683838 -0.36315916397564291 0.4244761195925798 0.32107461880278115 0.47240971766778356 -0.57554060998133494 0.47531642191169304 0.37312416789923036 0.45738521523761949 0.35881609477278814 -0.33768193081364417 -0.34656196678428181 0.37843479816154957;0.092680755553552915 -0.57087589737475664 0.28739806890274311 0.64606287483454461 -0.24358620734686626 0.34813623596450333 0.50458161778149213 0.19520948995876444 0.08267778854225051 -0.062855472093179793 -0.20524309961919823 0.51148329204686172 -0.040598430988295159 0.61432584833923887 0.093220230735845913 0.217392761045994 0.50474996132747474 -0.5592581970892484 0.38393792503916158 -0.15198639596247374;0.57433722354278194 0.62275034782576755 -0.64395366705792434 0.54415157968495986 -0.032515307474882148 0.50522828260191843 -0.079568382148879499 0.27603426027535882 0.1352172210239253 -0.75549205284631449 -0.19137154172156254 -0.27940900062274809 -0.36042499551105939 0.13631504657287266 0.20135344287785523 -0.21846647991810722 0.26040184402957861 -0.30951919993886551 -0.60952608249162976 -0.061326017887507044;0.52208377239379788 -0.51843871833222466 -0.38497895969780699 0.23065738389936952 -0.24136028002832505 0.084800993598279487 -0.21611853268990158 0.2268593836225474 0.15500792485023046 0.59579644146343802 -0.60048828562452083 -0.56966194311008533 -0.28804464117293188 -0.33995374768034803 -0.29710131798627837 0.33613065711161677 -0.42353181163346931 0.14356832471187658 0.57922074551825087 0.19370648551418199;-0.047474830741132727 -0.1594665949130821 -0.15688829147469743 0.14457015363271603 -0.34118116523200825 -0.34669763509930307 0.4225193337964096 -0.59375127738887268 -0.38396064138556257 -0.45305033043086868 0.30926337849058955 -0.10374091313807049 0.018513588017122631 -0.52832448933885845 0.60614018959711746 -0.51752814447470175 0.11422504029947154 0.48560569313751861 0.43447393930189665 0.51455327785744409;-0.28284165398196431 -0.45233943733160664 0.0993154965204672 0.10617880297488626 -0.77520181037260583 -0.61890381026187657 0.2593182765814307 -0.18997537848630389 0.37243183681352909 -0.38136177063442211 0.52960034455915739 -0.28457863096554525 0.094200696391972191 0.43596113506177597 0.60620285605200352 0.32724788418274203 -0.06826888794588086 -0.04533206138855575 -0.043596831338607853 0.44410312984607447;0.048432385131764996 0.065447380190277224 0.2286052612337709 0.23248836567193887 0.68351978675536007 -0.25844905699412429 -0.52467592038524546 -0.50131998094482433 -0.50970717936113707 -0.60644777719392695 -0.015669128364478955 -0.19685663523646477 0.55678622297874303 -0.34218474699041218 0.21292941144666266 0.05590324458022413 -0.224243614142449 -0.68397041048104945 0.16197219858568698 0.13577162046351055;-0.019715443248182231 0.11491791259826423 -0.67759415377855159 -0.44900666318724886 -0.54057550970407764 0.15600951374403749 -0.31361494471440443 0.5564730651578893 0.42930455470743462 0.22559107084718036 0.38326233339577859 -0.31514049997267862 -0.34523587341642081 0.015039579806691211 -0.077940061477066058 -0.47132568676295117 0.48902455484760288 0.64021481025556515 0.14734132511646519 0.1678256358702819;0.021202445648039015 -0.10102152916053604 0.31970311739144824 0.50640359559954917 -0.06431687856567779 0.6127897834979803 0.41000057590591865 -0.45985552719306361 -0.48245635497786638 0.35791860796768427 -0.07227655167341733 -0.49950264866926508 -0.66644913559670649 -0.19934202808068094 0.28377340722923278 0.43497299390209621 -0.094989042393854611 -0.1067269967197846 0.13099502062321919 -0.60694714909624059;0.31963282638994872 0.45481394078220133 0.3081606406283281 0.44976858708713024 -0.26622018148001186 -0.48027266200530516 0.62189852343424268 -0.19833592162787911 -0.48669954174833002 -0.36737868547218294 -0.11053439983640446 0.55233473212868667 0.18156278169454906 -0.49037178793061947 -0.54107164432183519 0.0087161441920893638 0.14328482684752419 -0.21595775677400297 -0.41847676779105941 0.3319889250883773;-0.099185805369733884 0.62406140667440579 -0.28160525734786651 0.015649074484793586 -0.62693655897004097 0.28964047041487428 0.40020940508655267 0.28817407168171655 0.2357766497430791 -0.36325789826804533 -0.62224695970443333 0.087132841618039289 0.35788982966449384 -0.025660809322530061 0.48754102775205915 0.028741341171929825 -0.44568418017556771 0.36135435126195181 -0.66494562655570666 -0.031923310190985418;-0.31706837966812756 0.15059455270698555 -0.049978137359622095 -0.23867847806256054 -0.61597667015845159 0.3623330507923444 -0.64496983170845368 -0.5756089156338744 0.36855374103198701 -0.55318135589230422 -0.25591937333437303 0.53692890928301729 0.30841338548757535 -0.12985043324225704 0.19890358177162579 0.061178577092707291 -0.39968059254422461 0.22508233358024024 -0.52067549497453436 0.17500107894642131;-0.033823656097171702 -0.28129846911535861 0.12381045963417152 0.35205697430013144 -0.5855730644716064 0.13649165214415426 0.52530961945887156 0.21655447943941095 -0.11927162862239545 -0.21433471509135998 -0.49722378742400775 -0.18428309817772154 -0.60195404158794641 0.61821458039857913 -0.51028604869228322 -0.31535948880963682 0.010373001201899809 0.123662724818079 0.42447911287900542 -0.61385427147322313;-0.41363650668150681 0.00098273927208233306 -0.59509296771469877 -0.021080980173906722 -0.49891776312615604 0.41896285657837773 0.39680230019141022 0.53968548592955212 -0.46201448807444906 -0.70519675550975258 0.53235055052097024 -0.086625261104175927 -0.37989120545473809 -0.44531686381093599 0.30714018791609704 -0.23480380556706182 0.19645477320086557 -0.085816279410314472 0.13611134422776203 -0.59657717103253227;0.37491405326746335 -0.260043524187069 0.64996741233000577 -0.49253309292491221 -0.047315675110711435 -0.49658932768061192 -0.35518209634615006 0.26569208075681461 0.15376236204674334 -0.20998130474649052 -0.61210808677084882 0.26262968400753989 -0.30896946485359017 0.41042034968902352 0.2703884819156876 0.31060396425698084 0.1058404242313315 0.27246582978908285 0.3431920661095173 -0.65500259182223097;0.57524824333533109 0.025287251801965185 0.089529242572935847 -0.55374570261387512 -0.018421267512619178 0.069183150794573503 0.41883019026613227 0.35952225879668576 -0.030703408232639791 0.65287665201875844 -0.5264656237646822 0.66148474221082543 0.14492840624995687 -0.12260085185810714 -0.2840272458996802 0.2707428269360222 0.30573853015572261 0.59752515617799162 0.22761785761822942 0.41084569473064436;-0.14668097207880249 0.13252602439473246 -0.15345244740927652 -0.2285001040237469 0.31643017123553696 0.75954303642238985 0.65211890113637638 0.19852677791825296 0.042485172767077688 0.048929834083723978 -0.41925627418623052 -0.42677087830995725 0.47971574093322639 0.56453237878876261 -0.21563988815935164 0.11531136485020883 -0.56176594639624511 0.35491696438784459 0.2864575501528443 0.39252546427520085;-0.27929244553653298 0.69044906708935727 0.077627571586541599 0.50133769308722387 -0.4605122132634582 -0.52406159602486213 -0.37666536689834401 0.45179207986385322 0.36987630578991526 -0.75844249616249959 0.0078205093538202472 -0.51729781155173593 0.44270689347788894 -0.1795690368965018 0.12354104738059665 0.21192013029570989 0.36915408179718107 0.12545573859614112 -0.45162337819309256 -0.33784186713149161;0.65524907810581445 0.31914070959762081 0.72266409537382881 -0.55879078452762299 0.46447038976148519 -0.080927091402783466 -0.50443983017583682 0.32766244642344494 0.46060331737515225 0.30884037438637546 0.34792987903907646 0.27730122355862025 0.14014493022844865 0.22262636458071858 -0.50216259542028063 0.33627536202618208 -0.30654659220894209 0.41632999338632937 0.17476084269622916 0.40086573837951478;-0.2423413296015185 -0.26080650580917308 -0.3967453884389035 0.06460823033027932 0.60667319040105128 0.18912864556766426 -0.60872082871204314 -0.13170723552347827 -0.34727229370205803 0.049583229309936097 -0.28105129275785118 0.39702237739734614 -0.22453748553876962 0.53824277685072641 -0.35262572945753412 -0.21508976798014579 0.5010940650042548 -0.57654604863132242 0.0069261690942531481 -0.60289835862631402;0.45571852968176058 -0.36878776145419784 0.64444811351306519 -0.023611281752007874 -0.53353983777616032 0.21775446314627286 -0.059249499531889099 -0.26563561239381461 -0.24379678191859935 0.7173007155226816 0.24094982306253346 0.73057074276096512 -0.069821489812185653 0.34645935789002169 -0.15686267957236616 0.62473844326717765 0.27670721368094242 0.54902244021514712 -0.076065227938466595 0.36564323418360534;-0.4504159144480176 0.47389730535112062 -0.28854366232412948 -0.17145675578498709 -0.40531586317076507 0.60208430613608377 -0.4535715058976566 0.23032169549735737 -0.4552479093478648 0.43179429540359748 -0.37079395617575184 0.041264483687347281 -0.16310756461658493 -0.44171483941873707 -0.14307425008341881 -0.48198933304654845 -0.27990302012412188 0.43173336581093963 -0.0063700394802561665 -0.55209671997973297;0.22993304981574311 0.18331960176111076 -0.51766299525143566 -0.22603939646645985 -0.45717299003538237 0.34561376589870502 0.617984979935705 0.073839977056256473 -0.28822346573874341 -0.19595307713350724 -0.49407531412034028 0.63276896477965427 0.21396922296537965 0.22212537632677906 0.52658172175638662 -0.068464756713388378 -0.26551693640053475 0.57738725232136801 -0.37108037912813413 0.044447364231739922;-0.41499341434248799 0.57749045603666238 -0.25313277961710851 0.059739927478871115 -0.14103652662541635 -0.27005990192729717 0.38112591355277764 0.31417353229601569 -0.5043789080053801 0.61791462147190634 -0.22303775356721059 0.53972129749177855 0.37535101988345726 0.1453459196572936 -0.38184740472985934 -0.14951791222663033 -0.55190670490675975 -0.33504013655712472 -0.43338743635105836 -0.28458581699045771;0.037763396637839182 0.11615695514644649 0.49199709067736802 0.36485767508525663 0.48687263398627884 -0.37709235733055751 -0.11165988900759974 0.35144876029364602 -0.092930730511990467 0.4066867186725493 0.41514291382149748 0.41289133649698834 -0.51222129697642782 0.45173949999971452 0.54766578220518414 0.49988690115639101 0.56216791976825897 0.0070694992098176181 0.15493444691142885 0.24310424712984768;-0.25332656643578932 0.44142364877249451 0.14907105513953273 -0.1079726800806968 0.49017651213796171 -0.54408568141048963 0.27652079352239961 -0.57301881474358451 0.016329879302313419 0.3573857282036017 -0.35344569701987549 -0.49802004895711754 -0.16417632397192369 -0.46308174573745947 0.52246615892805837 -0.36552511094175549 -0.22943443600052249 0.49301328146366918 -0.39414210189893234 0.48614932474652001;0.090544018321553066 0.4126775594057816 0.448484858768124 0.23157960645827808 -0.0044463839992621278 0.15729356068348993 -0.49290393155764628 0.1340695729628798 -0.6792605469532127 -0.18474818928942566 -0.53269416184836549 0.00071268529021990281 0.6047433021493509 -0.12385804924507655 0.15487143606235343 -0.14727716277558006 0.34936091998202318 -0.097669638624763827 -0.71131677312541475 -0.51921492120369983];

% Layer 4
b4 = [1.5320662758847059;1.3238393424646469;-1.2004028611544577;1.0708585063363869;-0.87561653888877145;-0.68971558409090949;-0.52094157338787961;-0.37349439445658578;0.21700770972965755;-0.095327285861323177;0.058048604927281783;0.21627855445647481;-0.34372137726124591;-0.53673053383653313;-0.68140674295753756;0.85965505829542632;-1.0491421639239846;1.1789158902545249;1.2743885266647017;-1.489787933330345];
LW4_3 = [-0.287087498022495 0.34094854524859436 -0.061315381687409888 0.32973085389187079 0.25454861275327806 -0.18615964992134959 0.10657686833206129 -0.033375843753419072 0.10865855907268539 0.067507044769039182 0.34804817230481444 0.1329522717549094 0.33750246882075008 -0.26580929361163663 -0.20334182044244703 0.32008392238728806 -0.060298035777025791 -0.14723344145470507 0.31315892917755844 -0.36081505676432685 -0.20445387130496903 0.24707105347854466 0.27443867291821178 -0.29554223248277173 -0.035276981578273511 -0.037276164121969074 -0.26950567592697172 0.2193011879377173 0.29053461469519604 0.10312373536613914 -0.07333170752816065 0.24446016011066996 -0.012215563739707905 0.21861789855505079 -0.011164431590512402 -0.0022316962533879244 -0.038599044330759134 -0.1753843047482764 0.0096246227249454468 -0.25396447926646887 -0.26933541775541631 -0.025172600198580825 0.22588362865471881 0.015909935912364913 -0.32181801716402175 0.14086853253535961 -0.085390076258530595 -0.0066522485499879271 0.18891954641274786 0.20680455334317291;-0.28500887091373084 -0.17565813041807346 -0.28795090393302719 -0.083873691661837099 0.12922947374954705 -0.42625576460417264 -0.29592522246109138 0.20411810341767109 -0.32609422323102932 -0.34133481604741434 0.24518515384576609 0.26530254354948213 0.17113132615407239 -0.23580904711186451 0.23947882420550784 0.10768268456883047 -0.20498096463644638 0.17968698307097097 0.36392918465897434 0.13124600779290124 0.26214672984194687 -0.25595161984909859 -0.16890396590251441 0.04611215053311879 -0.26589379335083468 0.00049192350765906139 -0.29125604777863456 -0.17564683971765649 -0.16375401286173188 -0.12492981954991907 0.1058667231071321 -0.098193109090829664 -0.022798482698817409 -0.17994335316116913 0.073870166570141421 -0.098600134719758911 0.46200396775587077 -0.21681296336058115 -0.35270739249101252 -0.029273417908995666 0.37754966203792445 -0.30638315581394726 -0.23974769388995001 0.1510468113897924 -0.062636847452093705 -0.027759156245594031 0.23576791029366792 0.1217435824546427 0.11420134396406036 0.054220444402010307;-0.027215649973944579 -0.15054000434625092 -0.29096594305005097 0.20674468855099523 0.34463006227115006 -0.3877051864298644 0.30292438033538127 0.033720194834205262 0.010819564273702934 -0.13546442782934498 -0.0031620989404791784 0.41803978789165347 -0.011034447050065968 0.1352115261458493 -0.086280028323391739 0.2009562367826426 -0.19025660344893672 0.25006457699275103 0.23152514983816541 -0.19834741931950975 -0.059085545868399328 -0.168796521375215 -0.16529850574067587 0.16644218543533787 -0.22723460575328314 -0.25403397053618937 0.034954739262510602 0.30799286357703143 -0.23952697505869183 0.10432220966350857 0.2513216931882184 -0.048900865685231852 0.18414098132455364 -0.20701365425951909 -0.18110455003256098 -0.0081908869484673078 -0.21576136151354797 0.097944984405306232 0.21590745216372789 -0.23007855960024418 0.3837102577732715 0.20789691580565284 0.17218582480852668 -0.24619792236960389 -0.030450847465635218 0.22639367430661189 -0.30805243125139686 -0.34724321266476138 0.18806812965619427 -0.2444091817820602;-0.28395277867875796 -0.0020474550921682796 -0.21398531751095917 0.075206731478670269 0.28105668249974625 0.24860688731173286 0.22162185880340762 -0.23760347748889726 0.41648304988140761 -0.011900358148469712 -0.015966281164643714 -0.11710901850324838 -0.38089871270169168 0.015112580676594973 0.02498598401831444 0.26172870366569773 -0.29187603698856546 0.0010506986878818614 -0.085099649932764421 -0.038376562046120444 -0.13544324656233692 0.074119764710886091 -0.15249337048836248 -0.044700266835981502 0.28014458721875474 0.32606898810742979 0.11400127597940468 -0.10212240967554703 0.067273500125440963 -0.06645199111433403 -0.2684005225857673 -0.36448913035187097 -0.31514994877642255 -0.33100019830327465 -0.27556052641896106 -0.15469317425317816 0.33038555272104414 -0.1822829134555953 -0.17099756891021561 -0.38496998867805604 0.15109452074009128 -0.057960618569379278 0.15898777252230578 0.06744137281459206 -0.063330764824375385 0.018184194209114549 -0.10268664077564767 0.10665730808870283 -0.058229501980039899 -0.068356058655960492;0.27383820736618875 -0.19008722222880561 -0.023227891777177719 0.13060656700755263 -0.046980907631888807 0.16376957824898616 0.25713268804875766 -0.35725247900993118 -0.2927233959349807 0.28179666583396307 0.0052333507288743709 0.21326361315995737 -0.056237244051605725 -0.028080666136418585 0.2615101648134634 -0.0011911883878211499 -0.14756238951632211 -0.33667598673942783 -0.21722891671200842 0.21133421865203711 0.20209329619424135 -0.19413823296632146 0.088672476525074567 0.16298710491172569 0.19849535955807718 -0.23341412603542383 -0.17038143365274577 -0.11441139022817993 0.11226941271037646 -0.1503316284064932 -0.091768269112419767 0.16185851641343815 -0.19160229062401463 0.031384301409678676 0.21733453021676813 -0.08566013700905141 0.34492655457466026 -0.30896059768950929 0.18329762703352517 -0.30181645566916826 0.34601225514034711 0.11737353500346273 -0.15972584872896473 -0.29279094460986255 -0.16127298806709697 -0.42249152290237652 0.27729509287760856 -0.026745742891090957 0.21240327960218613 0.13526311879123354;0.12545004656943218 -0.25710468334323977 0.19623543700201945 0.018658619547018397 0.22915822429032412 -0.082818182012752983 0.15717731153009865 0.080890812181785468 -0.22685084538723577 0.18040101301343817 -0.13067693200434832 -0.33429736856745401 -0.25341273129817199 0.27441318694367201 0.028700917194609491 0.16730803942235589 -0.21588389076210698 -0.25922143772494799 -0.29281968090488386 -0.2371703201101252 0.29649032112940732 0.34705806033337694 -0.0035960305178905287 -0.09711302257609683 0.21389980770299821 -0.29042398652508661 -0.34577105178503176 0.17605155951701046 0.23488166551698683 0.10734090275426758 -0.29780908971700526 -0.22947022547153867 -0.32268390750478088 0.015707385731555275 -0.19034701874805079 0.087263007937879639 -0.46266258576356573 -0.25219331628119585 0.15835063834692778 -0.28314592780465248 -0.47780447931716025 0.3902155715558997 -0.34954580861129886 0.43313087754122959 0.038255729879894333 0.0069033076804437647 0.1514757419075437 -0.26083581735658556 0.053380378614912856 0.021108968192907782;0.033968711274530224 0.1613583243822814 0.25065565902965842 -0.32132443921177811 0.22314755535725725 -0.019037505015827124 -0.13007345715496091 -0.05963683825270278 -0.15677028638961474 -0.14236896240292896 0.23314117953901167 0.33318390958497862 0.17330914730999242 -0.13204104723237464 -0.0018852632922059028 -0.29368451833201142 -0.038750991143624999 0.35202325886456876 0.16173695827906504 -0.24021838579420521 0.27707346315992221 0.090225313036154331 0.29249384146502344 -0.28860570273432828 -0.23054538496562821 0.35746672640635391 -0.060144144765395348 0.029997412856097225 -0.19743205437243466 0.20923684035857601 0.24274207211516124 0.29593854251329077 -0.13854774063201317 0.10467988549123904 -0.099670886820960827 -0.13927875597076012 -0.12205457062755237 -0.10033562640230848 0.23526444076536543 -0.21171585379163124 -0.090520757824525844 -0.28539828186235477 -0.3540300939289317 -0.35124368922405452 -0.13625500356272949 -0.28339894725526832 -0.23938778629922342 -0.046715759016473866 -0.27831180679887851 -0.13593493864905834;0.30076620106716545 -0.33147820681662915 0.013278075565600756 -0.20967451364420189 -0.22553496962931852 0.01787216866242132 -0.18107073637121643 0.26084795518264908 -0.021380859939856944 -0.036622760424865092 0.24764073586378021 0.10148973255397246 0.32461629559763611 0.28100661802514521 -0.050534406148529575 0.23912900909554535 0.14081788928953687 0.14079078041060097 -0.24781697294325944 0.084001219004217073 0.35796443988106791 -0.16152682924687728 0.058884244276367605 -0.16357678092368735 0.3199066714528282 0.00014615098532885074 -0.35351535554236946 0.2537061955359185 -0.33858301667983176 0.2383037221493973 0.057401794324958559 0.037298263980851558 0.28184536824416323 -0.24646865584833388 0.32575534602054246 -0.081392376278892231 -0.084051091162122699 -0.072322386760566598 0.15948392541196466 0.32233208348225911 -0.3064324314302474 0.16537160958821337 0.10714747307385933 0.14220587328852358 -0.32438359861674432 0.12580756405504867 0.049883415611353767 -0.29118821556881852 0.12251886875320711 0.12883960457744853;-0.35521577255365255 -0.11657414929125857 0.02068990355923099 0.40725774052331876 0.20861827150662873 -0.17205955393376327 -0.091550894867953606 0.26104076418812044 -0.37254368795086118 0.29652890013122257 -0.045894322476869795 -0.17917473672139175 -0.28653074146921131 -0.07910115593802465 -0.26589477191653027 0.062159397057597682 0.070061483707272831 0.19005073013512047 0.18623654918983643 -0.15121940307986234 -0.051693879929927022 0.10029118345818236 0.23389531401091312 0.17993916158041609 -0.024201916205475713 -0.33945260265567595 0.21476806165827836 -0.10556597769395315 -0.2302037816285806 0.25454370471409299 -0.18270789897915535 -0.34930043873066208 -0.33191657205164482 -0.15448374987713848 0.32799529731213467 -0.18004887806364858 -0.29873523527058082 -0.28391419290175252 0.25027181109997715 -0.30970470918727983 -0.12790235006712836 0.26509612602165361 -0.03070964473573129 0.22685061417709634 0.16085146138768586 -0.12672196276771111 0.0032245746338160279 -0.13529815877786605 0.22374096639744587 0.1183926562788146;0.11603441322168123 0.25524427479652634 0.06573953226605006 0.21449337744989946 0.054383948415857232 0.26867049751979238 -0.36155453608603383 0.2646714948052869 -0.18257682668562927 -0.25638268287471366 -0.20787308943169017 -0.24759152540975071 -0.061684033250270401 0.27036123078669005 0.056737150360977207 0.0024240882718946427 -0.12516657559651723 0.034090726947998591 0.37830988180637626 -0.21326073329606671 -0.30387061487706457 0.094752690136604548 0.070775682363126521 -0.071301522291777747 0.27927534700659579 -0.1197776741818691 0.36285397722061019 -0.2009685241232298 -0.13235792975006058 -0.27350872375853802 -0.20515528544685485 -0.1252834598501468 -0.017458756465149841 0.049558319422752746 -0.24240971259521979 -0.060107740945891872 0.26674994690964843 -0.24840302982008411 -0.2244854591841588 0.094229059891277084 -0.31931336910588942 0.022113195482704236 -0.10419566005906869 0.33078250397256942 0.053536432766494391 0.37461625697847128 -0.11536868215085859 0.31238094822934542 0.21401847707495394 -0.28341209900009895;0.27130732674570318 -0.25338530593340608 -0.009796494431734035 -0.064645287837955881 0.34651489616879577 -0.14057492045950493 -0.13148608558026548 0.0060820477022970349 -0.27492349367399666 -0.090457582639185408 -0.086720506270917153 -0.10808511180881486 0.23449735566101165 -0.20759937081233576 0.12980803913323216 -0.28832234210186874 -0.27214799457782013 0.15818708717984442 0.13110123436338675 -0.13286573269083907 -0.072039827210542584 -0.2765417558727874 0.043245179617776013 -0.23368271181602299 -0.30575643284852744 -0.14967600112292409 0.27028029895773975 0.11755713085808432 0.082241258971431003 0.24163380043897911 0.22159529525372548 0.14264321174003344 0.20902902918677677 -0.21547554982865097 -0.0046999226233743561 -0.078911123686378329 0.060551219877701117 0.23346553255265395 0.33479700664831585 0.24056310423548571 0.19668354957792061 -0.34832184823351231 0.15904390883501049 0.25509642276481737 0.3517277197726929 -0.0052967138354705163 0.3353129108065363 -0.27759492152465154 0.26576992235266622 -0.28219070454680178;0.15219112768196824 -0.0085702519025498639 -0.27723698696039778 -0.20252317140379927 -0.17849801619034394 0.18107755582075336 0.23181671058775349 0.11536405015728887 -0.33772300247664183 0.13259297740641188 0.23818527817064439 -0.0038912737951273418 -0.073121218198483981 -0.0069720306697294565 -0.10287506606202212 -0.15360161401320932 0.31667594027078144 -0.21061699906976478 0.24402976071754412 0.0046356713820548609 0.29575584988330306 0.21540217060764041 0.33021707880178675 -0.14117046891896531 -0.30045815121713287 -0.10154276672691735 0.1641965625743472 0.30623283476692376 0.25644105415382329 0.22164217646265538 -0.19838454812016026 0.24537285350268728 0.24812473948257269 -0.064713823637815457 0.30734053323598864 0.17262312372087218 0.20433403024114113 0.2479818397539959 -0.16349451555664413 -0.16908751434103117 -0.18046064094486847 -0.1290664608446867 -0.17532935295051155 -0.16140210382157477 -0.22524760576487096 -0.045195495902792024 -0.30428552813695553 -0.31653658263520801 -0.17974493857139409 -0.26494855535016315;-0.2201138568494046 -0.013466709308520758 -0.27574662161646252 0.11276334316877902 -0.11076632031057315 -0.31684257154047052 -0.17405224112653897 -0.12234046668457327 -0.32182856640311647 -0.093523825070186958 -0.016400245011297689 0.315418325155704 0.21053872301080284 -0.10180648148033394 -0.069116549533676436 -0.079784460378183014 -0.15648248776320386 0.36385881367506845 0.12054072741415305 -0.017165899558186634 -0.32385552021685798 -0.15603348208805731 -0.25238455634033419 0.29447221223744802 0.18674313052179706 0.23811735244048829 0.14759436470115056 0.15683066441795143 -0.082710407708931677 0.39672449530027071 0.37225776207439931 -0.21134420266328141 -0.0083982980174184471 -0.24858363844153647 -0.16643557161607828 -0.27978835112692568 0.064735574948120461 -0.041194198642500263 -0.11965245057744392 -0.17906864875527662 0.052124167993277945 0.27927675513683731 -0.13216628509844094 -0.30782502031847903 -0.20146963843328949 0.35330509855150133 -0.36373689331053172 0.14994545562397493 0.20140870175947159 0.20123756439375157;-0.27735651605322276 -0.3782144402971806 -0.12788085567547894 -0.029263500509576778 -0.2635647503012537 0.048397666335997624 -0.26830115120404274 0.019487760972370437 0.32100591608999857 -0.38974037981160164 0.015847319968311947 -0.0019468552115249852 0.041964981555505217 0.29369257020366712 0.20092369197890628 -0.33314282351791558 -0.12396473976155734 0.010813419872445525 -0.051127257040920512 -0.098527861099495934 -0.21847929476643305 0.0017918085460312994 0.21777167299109604 -0.16447166080431111 -0.22804850457572109 0.21832519746728773 -0.034858654571783318 -0.12052603382069901 -0.17235440737766877 0.2438450814458778 -0.081177167338930684 -0.19530307706816283 -0.0084583355184183889 -0.17557380458176536 -0.20624192676681671 0.041394349546794065 -0.063505839223775479 -0.083187253915484538 0.20264166480109064 0.0244610094539712 0.26296394095673542 -0.12784092414682915 0.34463337912180558 -0.3064262709496719 -0.29835222776106146 0.26645255007138779 -0.41604677074309693 0.080052636537851232 -0.38691159577019291 0.0095161535594268532;-0.30219311233579849 0.23202707256587729 0.19496012780482225 -0.11573589996349223 -0.22748825697291625 -0.3815713299550742 -0.25754385795369522 -0.22431787258681796 0.28926242398955604 -0.21664260678599456 0.066585332076348383 0.094623972841491086 0.04767801832243327 -0.12324259852431406 -0.18016366793861413 0.19214539227504462 0.33329703027712504 0.32973083531491915 0.091946487038793059 -0.26150082835734623 -0.3792896156974282 0.12019833898791922 -0.3120939167505995 -0.2793102345912109 -0.092940034669348193 0.51645223861372269 0.14642075203809196 -0.27200718862297318 0.092546983058529667 0.13612731851771898 0.34408161703100659 0.096028257230185599 -0.19726276951324045 0.034377782612260793 -0.17717149777182375 -0.36075530255618099 0.4603162355182534 -0.11212227205146423 -0.19687166668055361 0.04041813839387387 0.12827761109430147 -0.11017628158682004 0.19000859211221974 -0.49575056231851561 -0.16260876569512001 0.23417691765765997 -0.064708550205721582 -0.01221973999150785 -0.24527573301788036 0.3096185939110625;0.011579204987376525 -0.31642067473407953 0.012632838436065101 -0.18645202994298693 -0.13653981200054613 0.1601732086249488 -0.027274555278013979 0.12935177271876466 -0.15060138545297946 -0.14435746176151043 0.085388559931500949 -0.1934855719073674 0.13607680362621163 -0.31999280025243265 0.16495659568040769 -0.27246754946963508 -0.34448430968518151 -0.16677457646796337 -0.16702833719723673 -0.13469865095608549 0.27306124249429226 0.19823809903599612 0.0634901300776467 -0.056044676566029364 -0.18563805433681646 -0.3488648469921915 -0.34166181748777902 -0.089942828796025845 0.15319841348955746 -0.09960974634738394 0.070533243350116792 0.1924930797093734 0.11733493253957002 0.32009505536957028 0.16743092112765526 0.12877664668261959 0.11080763138189872 -0.23773845203776511 -0.28465602110645882 0.18932371241958904 -0.31658909808029856 -0.32302711061605116 -0.2565715127649949 0.34110221901138943 -0.037083167061006207 -0.20721405798242168 -0.17334400552247242 0.2987130746258318 -0.15705389674020181 0.30841696417680753;-0.29393199361959649 -0.10207379957082846 -0.13998792821508449 0.06391465528401348 -0.176056349387646 -0.19937342348430578 -0.081047607321796028 -0.22336113363828888 0.17293683261800163 0.047131381916261379 -0.080185624844509501 0.24726398262946694 -0.34812154798978001 -0.10078680215522524 0.20143028345986588 -0.26210683005684227 0.18936545079561151 -0.30538693920305687 0.05518748392062333 0.050632481104672861 -0.080441656199532183 0.001870163786124689 -0.28377613075176256 -0.32027012083290346 0.22938415167687648 0.39858256039919493 0.18296802778143237 -0.12137512051262325 -0.27903193148917665 0.12928558416020919 0.17257601555551702 -0.17212711699621086 0.26500441355212756 0.2017342802632005 0.41281548282392727 -0.29097313344949932 -0.13905978927246482 -0.11285743635348464 0.17230118401288619 0.16761933209393123 -0.25153838432276804 -0.28927427921505072 -0.10600023990135428 -0.37326360059194474 0.34838418079091404 0.09889333017038851 -0.036753859594789377 0.27714566083795261 -0.16200068094040765 0.16052734989651227;0.36627900273778197 0.34282590295659021 0.12213764539972524 -0.23055307926788393 0.2810047413174101 -0.13951488299181952 0.11351561781897161 0.069704094636402147 -0.29723292247296368 0.31201030869282192 0.051959852122560664 -0.2085094577504634 0.2596396825014235 0.22156508627849186 -0.14319619656669511 -0.046252399112302008 0.18162502224935637 -0.27201903425516899 -0.0032893205493986955 0.24240432402641829 -0.15031036543126167 -0.34321547305194761 0.03045956647968991 0.36073136420004309 -0.14255442366764712 0.15298343738462705 -0.076373718518566197 -0.11681228660935382 0.029542022615260548 0.27708101499489246 -0.053379510644819037 0.27158329821342436 -0.18953676699281927 -0.12963605562821315 0.22100081332424287 0.30880368923174611 -0.29767529043560387 0.13086300319910235 0.18472874710005568 -0.20639081906488579 -0.12491625686515116 0.16904096872115959 0.04226209525401909 -0.14822513207968654 -0.31688473327112432 0.045727163115930523 0.19742241950063386 -0.14923076091916171 0.33991011750167222 0.36625542500652675;0.071737424745509135 -0.25927663091566744 -0.1752503141267773 0.1782451048460153 0.048132493732192555 0.12605510408916062 0.11690288103704108 0.25801974520508475 0.19562651773744114 -0.19892033567800038 -0.0021470795951212011 -0.22897203156814289 0.40993494100742117 0.30884656209517469 -0.15812659548127408 0.060877095802392714 -0.22276057821710912 -0.073212276028667866 -0.08802315945996074 0.31089664981755299 0.14414166778622975 -0.20733715866056046 0.38397394584029743 -0.10353895495951308 0.18421286750613977 -0.60189635552384013 0.32507527359903649 0.1347385301626704 -0.23794197155500316 -0.25567274954882019 -0.32190845464839818 -0.079246878977519156 -0.37602063705674094 -0.1095995899520148 -0.29262371403476733 0.31720562141831821 -0.49522371189583397 0.36981525982500602 0.2400206619312884 0.30316758165201385 -0.37235891614368638 0.42346928839568898 -0.065168828434069848 0.49802663380671586 -0.29077237958792346 -0.070937674159652075 -0.21198127679233786 0.15654874641695019 -0.013841042037414568 -0.026446836210714954;-0.08203916471525724 0.20666711528439552 -0.37118199809866753 0.3042176647221958 -0.12446275829353178 0.099246280091307815 -0.28101053004276799 -0.042688471111517426 0.0010898085903704622 -0.29943678533965123 -0.23445216018464779 -0.21482683202965178 0.1338826477660533 -0.37947773200623031 0.03310050080435438 -0.20922831976925396 -0.0057915300338239424 -0.16210504833902939 0.2158622178877895 0.16389662579648059 0.1110440461880976 0.2330686366681487 -0.16294097336026012 0.23330803409986295 -0.04823294384572531 0.0035074371879597051 0.042000241604315015 0.26993485526232402 -0.28665216873383792 -0.22386770776355569 0.00024914042921557765 -0.015670058551529743 -0.38057970133360186 -0.050879432308422498 0.23871480914646701 -0.2041942286251987 -0.17605802889029026 0.075198377897635685 0.3769898857064482 0.33492517988296183 0.16255163758055935 -0.25985009446102669 0.35088717928753116 0.075790801190780063 0.020902471341016252 -0.041751597752968383 -0.27845854277718857 0.31015573433031429 -0.10267665632555917 0.20685625361109003];

% Layer 5
b5 = [-1.5121748954494985;1.2283669294951078;-0.89203107933794989;-0.5433783788674178;-0.15386501170211542;0.25797535638928593;-0.54228848694590581;-0.87460681400544082;1.2106175999455404;1.5674658588507362];
LW5_4 = [0.10524675129666157 -0.46006386271830418 -0.31396205000210892 -0.19516152630280251 -0.33229197892651191 0.13454511662920024 -0.49185190309568544 -0.62339859896377869 0.093022486090004672 -0.037499154440390307 0.013996042426120611 0.55969100140847405 0.29593248046127557 0.5272114961700799 0.014067314506141073 -0.43518351762636032 -0.27621955447177049 0.12696907549443109 0.4610647800338411 -0.50643537300483088;-0.45093132188384738 -0.27045127349390208 -0.33467968393576847 0.39659713747992054 -0.26123926434289008 0.54119662346824726 -0.053052153676057562 0.28752857753404315 0.1209533853381507 0.40570711345046434 0.0024248772714249409 -0.51963087997310697 0.21978746985343195 0.24027694380928108 0.12744920941600268 0.55881704910377727 -0.3791033156044793 -0.11841754649854346 0.62179789520382367 -0.027966168278213167;0.64069176935516492 0.16868241372578968 -0.057249799082197489 0.25718235639606091 0.65884340219403303 -0.16135387688244052 -0.12054629723347363 0.22143705881949957 -0.63985528003797665 0.083479085555289337 0.61542479771415515 -0.3819211767268923 0.36969394974309855 0.38419997507915959 -0.068379671544995399 -0.21950741939479432 -0.35696755537079072 0.062591424084358124 -0.1154169484541557 -0.0083871136758766427;0.29420116545782576 -0.45566764518867436 -0.38845250884887922 -0.15405745366285165 -0.1190207603755586 0.86872323147261499 -0.31357766294405903 0.54837670658884119 0.038819666707125056 0.028482928487134216 0.31428210034711956 0.0055677790011860531 0.36491589516168488 -0.28732078700349822 -1.0038533404978109 0.32156932428428331 -0.66005839713622738 0.57834673159607486 1.0233867031592223 -0.24318976188028685;0.55393308813228403 0.15777035523531802 -0.0063400834745197436 -0.31532204728975383 0.56961989457508544 -0.56016923059614976 0.26507961146132808 0.34623816713366523 0.55742445709549304 0.18677456016819174 0.051762060647109226 -0.07807471427043261 0.19593143769849974 -0.20621711182119898 -0.37573493060081159 0.4016617982549292 0.36356442271286477 0.32308009758093792 0.13399997846648681 0.067107005777428008;0.52235731475683544 -0.23274753962310232 -0.54977766626901081 0.15813254099003018 -0.28521309393819538 0.57502177271333998 0.16987455155923367 -0.0025678306404178048 0.27220360761409718 0.21983355186515399 0.37089288139031856 -0.3324683731942456 -0.36215455474340535 0.4260878083453627 0.32744608491648841 -0.36824948822781944 -0.18512732156172351 -0.35871021996110325 0.41582498404067347 -0.50767552521432868;-0.051253852356125389 -0.34510768301127392 -0.075151192016944757 0.37065737975852958 0.35493114017796518 0.34124451796785915 -0.2582747344086912 0.19839013199250649 0.31626537276691585 0.5121808500186199 -0.25376345683852852 0.62283650720890205 0.27722701613526368 0.13666956703027905 0.36564158499268568 -0.010039158690222197 0.40273299858342093 0.053434078593461984 0.51750401634877341 -0.52368868478128416;-0.3719906075859451 0.54325621933001289 0.50067331442339502 0.30215130235297988 0.43947942979236082 0.32435736465572224 -0.14981959020801502 -0.53196546737173733 0.34400357023869899 -0.43854708434076989 -0.37570159234452083 -0.12294332965959025 -0.010099396966190499 0.50395877311983595 -0.39689770801025487 -0.087101296973478251 -0.17237844815880074 -0.35897881219004862 -0.2534153569139741 0.2033748210054703;0.38833926304854643 -0.057128183583972342 -0.2139654760244914 -0.49204543840706627 -0.55790495663645889 0.18297512092098719 0.21178174459249668 0.17792368052992832 -0.19582543474389824 0.59317752234192411 0.60733485967983403 -0.36021695589578639 -0.10848165376947035 0.48181092932225006 -0.31780098026021653 -0.15120332833807182 -0.35424924429964061 -0.21863288417078194 -0.28452084762623348 -0.35374970759753782;0.27524449814122015 0.033112390065611029 -0.43869763016479646 -0.14667810029106015 -0.44256976376502655 -0.47917998557733388 -0.049167001566727847 -0.61108593377210418 0.17304893836061297 0.48826915499122375 -0.3699403526539784 -0.046916058805200674 -0.62837153760026998 -0.066760854406195586 -0.16055442902470216 -0.2411356762127741 -0.37923758787838063 0.47626788941577497 -0.26233179955661179 -0.18343048931499598];

% Layer 6
b6 = -0.8620514936643382;
LW6_5 = [-0.34380042699148683 0.27720623895905816 -0.42970463119075314 -1.0025061846218173 -0.69278853780307792 -0.64629869875942336 0.83171485753018826 -0.20882539418328452 0.24801257253287465 0.092136881964964293];

% Output 1
y1_step1.ymin = -1;
y1_step1.gain = 2;
y1_step1.xoffset = 0;

% ===== SIMULATION ========

% Dimensions
Q = size(x1,2); % samples

% Input 1
xp1 = removeconstantrows_apply(x1,x1_step1);
xp1 = mapminmax_apply(xp1,x1_step2);

% Layer 1
a1 = tansig_apply(repmat(b1,1,Q) + IW1_1*xp1);

% Layer 2
a2 = tansig_apply(repmat(b2,1,Q) + LW2_1*a1);

% Layer 3
a3 = tansig_apply(repmat(b3,1,Q) + LW3_2*a2);

% Layer 4
a4 = tansig_apply(repmat(b4,1,Q) + LW4_3*a3);

% Layer 5
a5 = tansig_apply(repmat(b5,1,Q) + LW5_4*a4);

% Layer 6
a6 = repmat(b6,1,Q) + LW6_5*a5;

% Output 1
y1 = mapminmax_reverse(a6,y1_step1);
end

% ===== MODULE FUNCTIONS ========

% Map Minimum and Maximum Input Processing Function
function y = mapminmax_apply(x,settings)
  y = bsxfun(@minus,x,settings.xoffset);
  y = bsxfun(@times,y,settings.gain);
  y = bsxfun(@plus,y,settings.ymin);
end

% Remove Constants Input Processing Function
function y = removeconstantrows_apply(x,settings)
  y = x(settings.keep,:);
end

% Sigmoid Symmetric Transfer Function
function a = tansig_apply(n,~)
  a = 2 ./ (1 + exp(-2*n)) - 1;
end

% Map Minimum and Maximum Output Reverse-Processing Function
function x = mapminmax_reverse(y,settings)
  x = bsxfun(@minus,y,settings.ymin);
  x = bsxfun(@rdivide,x,settings.gain);
  x = bsxfun(@plus,x,settings.xoffset);
end
